<?xml version="1.0"?>
<opencv_storage>
<cascade>
  <stageType>BOOST</stageType>
  <featureType>HAAR</featureType>
  <height>48</height>
  <width>64</width>
  <stageParams>
    <boostType>GAB</boostType>
    <minHitRate>9.9500000476837158e-01</minHitRate>
    <maxFalseAlarm>5.0000000000000000e-01</maxFalseAlarm>
    <weightTrimRate>9.4999999999999996e-01</weightTrimRate>
    <maxDepth>1</maxDepth>
    <maxWeakCount>100</maxWeakCount></stageParams>
  <featureParams>
    <maxCatCount>0</maxCatCount>
    <featSize>1</featSize>
    <mode>BASIC</mode></featureParams>
  <stageNum>19</stageNum>
  <stages>
    <!-- stage 0 -->
    <_>
      <maxWeakCount>1</maxWeakCount>
      <stageThreshold>6.9371914863586426e-01</stageThreshold>
      <weakClassifiers>
        <_>
          <internalNodes>
            0 -1 13 -5.5530037730932236e-02</internalNodes>
          <leafValues>
            6.9371914863586426e-01 -1.</leafValues></_></weakClassifiers></_>
    <!-- stage 1 -->
    <_>
      <maxWeakCount>2</maxWeakCount>
      <stageThreshold>-3.4881290793418884e-01</stageThreshold>
      <weakClassifiers>
        <_>
          <internalNodes>
            0 -1 33 1.8976358696818352e-03</internalNodes>
          <leafValues>
            -9.0713477134704590e-01 5.5927473306655884e-01</leafValues></_>
        <_>
          <internalNodes>
            0 -1 34 3.7338223308324814e-02</internalNodes>
          <leafValues>
            -8.6164557933807373e-01 5.5832183361053467e-01</leafValues></_></weakClassifiers></_>
    <!-- stage 2 -->
    <_>
      <maxWeakCount>3</maxWeakCount>
      <stageThreshold>-8.6825084686279297e-01</stageThreshold>
      <weakClassifiers>
        <_>
          <internalNodes>
            0 -1 2 -2.9000528156757355e-02</internalNodes>
          <leafValues>
            8.6274510622024536e-01 -6.3087248802185059e-01</leafValues></_>
        <_>
          <internalNodes>
            0 -1 8 1.1355564743280411e-01</internalNodes>
          <leafValues>
            -6.9854253530502319e-01 8.1451481580734253e-01</leafValues></_>
        <_>
          <internalNodes>
            0 -1 17 -2.3577018873766065e-04</internalNodes>
          <leafValues>
            -9.5701098442077637e-01 4.6116420626640320e-01</leafValues></_></weakClassifiers></_>
    <!-- stage 3 -->
    <_>
      <maxWeakCount>3</maxWeakCount>
      <stageThreshold>-7.9365181922912598e-01</stageThreshold>
      <weakClassifiers>
        <_>
          <internalNodes>
            0 -1 1 -4.9375791102647781e-02</internalNodes>
          <leafValues>
            8.6536109447479248e-01 -6.3239616155624390e-01</leafValues></_>
        <_>
          <internalNodes>
            0 -1 12 1.2067516148090363e-01</internalNodes>
          <leafValues>
            -6.1721467971801758e-01 6.8560296297073364e-01</leafValues></_>
        <_>
          <internalNodes>
            0 -1 11 -1.9174444023519754e-03</internalNodes>
          <leafValues>
            -1. 4.5595899224281311e-01</leafValues></_></weakClassifiers></_>
    <!-- stage 4 -->
    <_>
      <maxWeakCount>1</maxWeakCount>
      <stageThreshold>2.7863612771034241e-01</stageThreshold>
      <weakClassifiers>
        <_>
          <internalNodes>
            0 -1 4 3.1589665450155735e-03</internalNodes>
          <leafValues>
            2.7863612771034241e-01 -1.</leafValues></_></weakClassifiers></_>
    <!-- stage 5 -->
    <_>
      <maxWeakCount>3</maxWeakCount>
      <stageThreshold>-7.0949274301528931e-01</stageThreshold>
      <weakClassifiers>
        <_>
          <internalNodes>
            0 -1 6 -2.6510365307331085e-02</internalNodes>
          <leafValues>
            8.4690159559249878e-01 -6.2978541851043701e-01</leafValues></_>
        <_>
          <internalNodes>
            0 -1 22 1.6899505630135536e-02</internalNodes>
          <leafValues>
            -6.0450750589370728e-01 9.6019035577774048e-01</leafValues></_>
        <_>
          <internalNodes>
            0 -1 27 -9.6537160061416216e-06</internalNodes>
          <leafValues>
            -1. 5.2480018138885498e-01</leafValues></_></weakClassifiers></_>
    <!-- stage 6 -->
    <_>
      <maxWeakCount>3</maxWeakCount>
      <stageThreshold>-9.1647922992706299e-01</stageThreshold>
      <weakClassifiers>
        <_>
          <internalNodes>
            0 -1 3 -2.1921467036008835e-02</internalNodes>
          <leafValues>
            5.7850545644760132e-01 -7.4116474390029907e-01</leafValues></_>
        <_>
          <internalNodes>
            0 -1 16 -1.0667688213288784e-02</internalNodes>
          <leafValues>
            8.1147772073745728e-01 -6.7671769857406616e-01</leafValues></_>
        <_>
          <internalNodes>
            0 -1 38 -2.3278313165064901e-05</internalNodes>
          <leafValues>
            -1. 5.0140321254730225e-01</leafValues></_></weakClassifiers></_>
    <!-- stage 7 -->
    <_>
      <maxWeakCount>3</maxWeakCount>
      <stageThreshold>-9.0551358461380005e-01</stageThreshold>
      <weakClassifiers>
        <_>
          <internalNodes>
            0 -1 9 1.3726120814681053e-03</internalNodes>
          <leafValues>
            -8.4421283006668091e-01 5.3667390346527100e-01</leafValues></_>
        <_>
          <internalNodes>
            0 -1 5 -3.6545805633068085e-02</internalNodes>
          <leafValues>
            9.2345142364501953e-01 -5.9767973423004150e-01</leafValues></_>
        <_>
          <internalNodes>
            0 -1 36 3.5324173950357363e-06</internalNodes>
          <leafValues>
            5.3637892007827759e-01 -1.</leafValues></_></weakClassifiers></_>
    <!-- stage 8 -->
    <_>
      <maxWeakCount>2</maxWeakCount>
      <stageThreshold>-6.1732250452041626e-01</stageThreshold>
      <weakClassifiers>
        <_>
          <internalNodes>
            0 -1 20 7.5532280607149005e-04</internalNodes>
          <leafValues>
            3.0769231915473938e-01 -9.8550724983215332e-01</leafValues></_>
        <_>
          <internalNodes>
            0 -1 23 9.0484635438770056e-04</internalNodes>
          <leafValues>
            -1. 3.6818477511405945e-01</leafValues></_></weakClassifiers></_>
    <!-- stage 9 -->
    <_>
      <maxWeakCount>1</maxWeakCount>
      <stageThreshold>2.8479656577110291e-01</stageThreshold>
      <weakClassifiers>
        <_>
          <internalNodes>
            0 -1 31 -9.6644886070862412e-05</internalNodes>
          <leafValues>
            -1. 2.8479656577110291e-01</leafValues></_></weakClassifiers></_>
    <!-- stage 10 -->
    <_>
      <maxWeakCount>2</maxWeakCount>
      <stageThreshold>-5.7021021842956543e-01</stageThreshold>
      <weakClassifiers>
        <_>
          <internalNodes>
            0 -1 29 -4.6961209591245279e-05</internalNodes>
          <leafValues>
            -9.2334496974945068e-01 5.3450608253479004e-01</leafValues></_>
        <_>
          <internalNodes>
            0 -1 28 1.0236121306661516e-04</internalNodes>
          <leafValues>
            3.5313475131988525e-01 -9.7556573152542114e-01</leafValues></_></weakClassifiers></_>
    <!-- stage 11 -->
    <_>
      <maxWeakCount>2</maxWeakCount>
      <stageThreshold>-3.2049784064292908e-01</stageThreshold>
      <weakClassifiers>
        <_>
          <internalNodes>
            0 -1 35 -2.0105631847400218e-05</internalNodes>
          <leafValues>
            -9.8612076044082642e-01 3.5304149985313416e-01</leafValues></_>
        <_>
          <internalNodes>
            0 -1 7 -2.1729726344347000e-02</internalNodes>
          <leafValues>
            7.6237726211547852e-01 -6.7353934049606323e-01</leafValues></_></weakClassifiers></_>
    <!-- stage 12 -->
    <_>
      <maxWeakCount>2</maxWeakCount>
      <stageThreshold>-3.8876479864120483e-01</stageThreshold>
      <weakClassifiers>
        <_>
          <internalNodes>
            0 -1 39 -1.3003137428313494e-03</internalNodes>
          <leafValues>
            -8.6051619052886963e-01 5.5620014667510986e-01</leafValues></_>
        <_>
          <internalNodes>
            0 -1 21 -9.5943553606048226e-04</internalNodes>
          <leafValues>
            -9.3459910154342651e-01 4.7175139188766479e-01</leafValues></_></weakClassifiers></_>
    <!-- stage 13 -->
    <_>
      <maxWeakCount>4</maxWeakCount>
      <stageThreshold>-5.2973634004592896e-01</stageThreshold>
      <weakClassifiers>
        <_>
          <internalNodes>
            0 -1 0 -4.7718279063701630e-02</internalNodes>
          <leafValues>
            9.2592591047286987e-01 -5.6435644626617432e-01</leafValues></_>
        <_>
          <internalNodes>
            0 -1 10 -2.2225975044420920e-05</internalNodes>
          <leafValues>
            -9.0856468677520752e-01 5.1367586851119995e-01</leafValues></_>
        <_>
          <internalNodes>
            0 -1 37 1.2963849258085247e-05</internalNodes>
          <leafValues>
            4.4906330108642578e-01 -9.2848330736160278e-01</leafValues></_>
        <_>
          <internalNodes>
            0 -1 30 -2.0148206658632262e-06</internalNodes>
          <leafValues>
            4.9412149190902710e-01 -9.1361773014068604e-01</leafValues></_></weakClassifiers></_>
    <!-- stage 14 -->
    <_>
      <maxWeakCount>2</maxWeakCount>
      <stageThreshold>-5.3635078668594360e-01</stageThreshold>
      <weakClassifiers>
        <_>
          <internalNodes>
            0 -1 18 -5.6053395383059978e-04</internalNodes>
          <leafValues>
            -9.2462986707687378e-01 3.3488914370536804e-01</leafValues></_>
        <_>
          <internalNodes>
            0 -1 26 -6.8178596848156303e-05</internalNodes>
          <leafValues>
            -1. 3.8827911019325256e-01</leafValues></_></weakClassifiers></_>
    <!-- stage 15 -->
    <_>
      <maxWeakCount>2</maxWeakCount>
      <stageThreshold>-2.9714915156364441e-01</stageThreshold>
      <weakClassifiers>
        <_>
          <internalNodes>
            0 -1 32 -8.5277315229177475e-03</internalNodes>
          <leafValues>
            6.8888890743255615e-01 -7.5903612375259399e-01</leafValues></_>
        <_>
          <internalNodes>
            0 -1 14 -4.2740843491628766e-04</internalNodes>
          <leafValues>
            -9.7387707233428955e-01 4.6188697218894958e-01</leafValues></_></weakClassifiers></_>
    <!-- stage 16 -->
    <_>
      <maxWeakCount>1</maxWeakCount>
      <stageThreshold>2.9380053281784058e-01</stageThreshold>
      <weakClassifiers>
        <_>
          <internalNodes>
            0 -1 24 2.7214044239372015e-03</internalNodes>
          <leafValues>
            2.9380053281784058e-01 -1.</leafValues></_></weakClassifiers></_>
    <!-- stage 17 -->
    <_>
      <maxWeakCount>1</maxWeakCount>
      <stageThreshold>2.9729729890823364e-01</stageThreshold>
      <weakClassifiers>
        <_>
          <internalNodes>
            0 -1 19 2.9719602025579661e-05</internalNodes>
          <leafValues>
            2.9729729890823364e-01 -1.</leafValues></_></weakClassifiers></_>
    <!-- stage 18 -->
    <_>
      <maxWeakCount>2</maxWeakCount>
      <stageThreshold>-3.4846231341362000e-01</stageThreshold>
      <weakClassifiers>
        <_>
          <internalNodes>
            0 -1 25 -2.3923814296722412e-03</internalNodes>
          <leafValues>
            5.8506226539611816e-01 -7.5438594818115234e-01</leafValues></_>
        <_>
          <internalNodes>
            0 -1 15 1.5325735148508102e-04</internalNodes>
          <leafValues>
            4.9143171310424805e-01 -9.3352454900741577e-01</leafValues></_></weakClassifiers></_></stages>
  <features>
    <_>
      <rects>
        <_>
          0 13 12 28 -1.</_>
        <_>
          6 13 6 28 2.</_></rects>
      <tilted>0</tilted></_>
    <_>
      <rects>
        <_>
          0 17 18 23 -1.</_>
        <_>
          9 17 9 23 2.</_></rects>
      <tilted>0</tilted></_>
    <_>
      <rects>
        <_>
          0 26 21 13 -1.</_>
        <_>
          7 26 7 13 3.</_></rects>
      <tilted>0</tilted></_>
    <_>
      <rects>
        <_>
          0 28 24 10 -1.</_>
        <_>
          12 28 12 10 2.</_></rects>
      <tilted>0</tilted></_>
    <_>
      <rects>
        <_>
          0 38 62 8 -1.</_>
        <_>
          31 38 31 8 2.</_></rects>
      <tilted>0</tilted></_>
    <_>
      <rects>
        <_>
          1 19 18 25 -1.</_>
        <_>
          7 19 6 25 3.</_></rects>
      <tilted>0</tilted></_>
    <_>
      <rects>
        <_>
          1 24 18 17 -1.</_>
        <_>
          7 24 6 17 3.</_></rects>
      <tilted>0</tilted></_>
    <_>
      <rects>
        <_>
          1 32 33 15 -1.</_>
        <_>
          1 37 33 5 3.</_></rects>
      <tilted>0</tilted></_>
    <_>
      <rects>
        <_>
          8 28 31 20 -1.</_>
        <_>
          8 38 31 10 2.</_></rects>
      <tilted>0</tilted></_>
    <_>
      <rects>
        <_>
          10 27 54 20 -1.</_>
        <_>
          37 27 27 20 2.</_></rects>
      <tilted>0</tilted></_>
    <_>
      <rects>
        <_>
          12 0 6 23 -1.</_>
        <_>
          14 0 2 23 3.</_></rects>
      <tilted>0</tilted></_>
    <_>
      <rects>
        <_>
          12 9 21 4 -1.</_>
        <_>
          12 11 21 2 2.</_></rects>
      <tilted>0</tilted></_>
    <_>
      <rects>
        <_>
          17 18 26 30 -1.</_>
        <_>
          17 33 26 15 2.</_></rects>
      <tilted>0</tilted></_>
    <_>
      <rects>
        <_>
          19 0 24 18 -1.</_>
        <_>
          19 9 24 9 2.</_></rects>
      <tilted>0</tilted></_>
    <_>
      <rects>
        <_>
          19 21 41 6 -1.</_>
        <_>
          19 23 41 2 3.</_></rects>
      <tilted>0</tilted></_>
    <_>
      <rects>
        <_>
          22 4 2 42 -1.</_>
        <_>
          22 4 1 21 2.</_>
        <_>
          23 25 1 21 2.</_></rects>
      <tilted>0</tilted></_>
    <_>
      <rects>
        <_>
          25 31 10 15 -1.</_>
        <_>
          25 36 10 5 3.</_></rects>
      <tilted>0</tilted></_>
    <_>
      <rects>
        <_>
          27 8 8 2 -1.</_>
        <_>
          27 9 8 1 2.</_></rects>
      <tilted>0</tilted></_>
    <_>
      <rects>
        <_>
          27 26 26 6 -1.</_>
        <_>
          27 26 13 3 2.</_>
        <_>
          40 29 13 3 2.</_></rects>
      <tilted>0</tilted></_>
    <_>
      <rects>
        <_>
          28 2 3 8 -1.</_>
        <_>
          29 2 1 8 3.</_></rects>
      <tilted>0</tilted></_>
    <_>
      <rects>
        <_>
          33 1 18 6 -1.</_>
        <_>
          39 1 6 6 3.</_></rects>
      <tilted>0</tilted></_>
    <_>
      <rects>
        <_>
          34 20 30 6 -1.</_>
        <_>
          34 20 15 3 2.</_>
        <_>
          49 23 15 3 2.</_></rects>
      <tilted>0</tilted></_>
    <_>
      <rects>
        <_>
          35 34 6 12 -1.</_>
        <_>
          35 40 6 6 2.</_></rects>
      <tilted>0</tilted></_>
    <_>
      <rects>
        <_>
          36 22 28 2 -1.</_>
        <_>
          50 22 14 2 2.</_></rects>
      <tilted>0</tilted></_>
    <_>
      <rects>
        <_>
          37 18 21 15 -1.</_>
        <_>
          37 23 21 5 3.</_></rects>
      <tilted>0</tilted></_>
    <_>
      <rects>
        <_>
          37 21 1 27 -1.</_>
        <_>
          37 30 1 9 3.</_></rects>
      <tilted>0</tilted></_>
    <_>
      <rects>
        <_>
          37 24 25 3 -1.</_>
        <_>
          37 25 25 1 3.</_></rects>
      <tilted>0</tilted></_>
    <_>
      <rects>
        <_>
          39 13 3 13 -1.</_>
        <_>
          40 13 1 13 3.</_></rects>
      <tilted>0</tilted></_>
    <_>
      <rects>
        <_>
          39 21 7 6 -1.</_>
        <_>
          39 23 7 2 3.</_></rects>
      <tilted>0</tilted></_>
    <_>
      <rects>
        <_>
          40 0 21 3 -1.</_>
        <_>
          47 0 7 3 3.</_></rects>
      <tilted>0</tilted></_>
    <_>
      <rects>
        <_>
          40 21 3 4 -1.</_>
        <_>
          40 23 3 2 2.</_></rects>
      <tilted>0</tilted></_>
    <_>
      <rects>
        <_>
          40 21 4 6 -1.</_>
        <_>
          40 23 4 2 3.</_></rects>
      <tilted>0</tilted></_>
    <_>
      <rects>
        <_>
          41 27 4 21 -1.</_>
        <_>
          41 34 4 7 3.</_></rects>
      <tilted>0</tilted></_>
    <_>
      <rects>
        <_>
          41 34 2 14 -1.</_>
        <_>
          41 41 2 7 2.</_></rects>
      <tilted>0</tilted></_>
    <_>
      <rects>
        <_>
          42 5 22 30 -1.</_>
        <_>
          53 5 11 30 2.</_></rects>
      <tilted>0</tilted></_>
    <_>
      <rects>
        <_>
          43 0 9 1 -1.</_>
        <_>
          46 0 3 1 3.</_></rects>
      <tilted>0</tilted></_>
    <_>
      <rects>
        <_>
          44 0 4 2 -1.</_>
        <_>
          46 0 2 2 2.</_></rects>
      <tilted>0</tilted></_>
    <_>
      <rects>
        <_>
          48 11 2 3 -1.</_>
        <_>
          48 12 2 1 3.</_></rects>
      <tilted>0</tilted></_>
    <_>
      <rects>
        <_>
          48 11 3 3 -1.</_>
        <_>
          48 12 3 1 3.</_></rects>
      <tilted>0</tilted></_>
    <_>
      <rects>
        <_>
          57 18 6 28 -1.</_>
        <_>
          57 32 6 14 2.</_></rects>
      <tilted>0</tilted></_></features></cascade>
</opencv_storage>
